{"dimensions":[4],"layers":[{"type":"relu","size":10,"weights":{"W":[[-0.17279261711883526,-0.11797311215105297,-0.762481861573919,0.16337228685018249],[-0.26266699598476356,-0.16021557960434354,-0.47008348238637837,0.6377959163567309],[0.6458233646934726,-0.18667507178430373,2.0460460710981505,1.0877997209051604],[-0.8405698851672935,0.7747831915802097,-0.06277398184092801,0.16599781778734907],[-0.2183780110497584,0.5324251991960416,-0.6849169346796664,-0.4489807810783318],[1.2796222109045081,0.6533833389847933,0.04278450535284108,-0.8734437586806874],[0.05952325276525853,0.8549952174671406,-0.8635905398714704,0.5241934574302509],[1.9704135283478208,2.0281730699629423,-2.401778377775635,-2.1502818120919347],[0.6881157828768054,0.9292532465183472,-0.9453759476460183,-0.15943872072489446],[-0.7042171992842641,0.20721853252739347,-0.46136362376522416,-0.43924339798594053]],"b":[[1.4532618092458043e-72],[1.23693981737064e-71],[-1.9816960844747618e-72],[2.0731392258600128e-71],[1.9307184282117508e-71],[1.5643646668393257e-71],[2.09379788914289e-71],[4.0073200797435096e-72],[-1.6834101433923425e-71],[2.13046700648917e-71]]}},{"type":"relu","size":10,"weights":{"W":[[0.46355893075636534,0.6754268495651239,-0.5314825228244825,-0.0839533169331823,-0.2076704451523837,-0.7668757853320634,-0.03323106596800629,0.16759584380117476,0.013993087760173393,0.31040056315190806],[-0.31225134690109557,-0.5354282751742337,0.3348076741048541,-0.4860044630947844,-0.7076400942603648,-0.7205195504074382,-0.5573850093965594,-0.783017456982099,0.04191750833804867,-0.10659987111009193],[-0.2104341993512604,0.22956869284972048,1.444561129842661,-0.6723329070456793,0.5082637765817848,-0.4320417261564497,0.6822124185630202,-2.693987256957581,-0.2496908707297436,-0.06645849746734867],[-0.5581519149737953,-0.5396299151700781,-0.03866033999795495,0.3774514980890206,-0.4915291292113509,-0.1946551508467302,-0.28698779849676664,0.2883862558037367,-0.6065865634822556,0.449928900356914],[-0.7406256166313521,-0.05726995611286323,-1.242981057844842,0.5387822248930851,0.03134699309206947,0.1384299983700621,0.88887986984649,2.242600919921301,1.1037991871145787,-0.3004264854773139],[0.49158493724801033,-0.21045955750492237,0.06903239207686969,0.2701261429368797,-0.6357458887420946,0.9504231800079438,-0.39831035483027016,0.7434100602082812,0.03815510591005276,0.7883059689966876],[-0.7086300679512483,0.688389391624345,0.15676663768430302,0.34134022801528663,0.28706494985090003,0.3462692740204855,0.22843313088956327,0.9541576186185514,0.7811790919603893,-0.13795290107069785],[-0.21828157357889852,-0.4512681252043448,1.930988114381841,-0.8070077444436565,0.7808493744766174,0.19982011462679763,-0.8224810862095944,-1.1481313109642663,0.5308569726460565,0.5084753872408887],[0.015621873225791153,-0.7671211568996034,0.006169804082954674,0.6988660337315609,0.724015067226594,1.0336285170465815,-0.12164427426386046,1.9583278671809399,0.9090073050238899,0.10673056257745964],[0.72861882646356,-0.402725713298891,-0.7100686438867223,0.657252139642286,-0.7497734479204708,-0.2375875598550295,0.5089894145277644,-0.6257928548753862,-0.02958935693868413,-0.22765949776708902]],"b":[[-1.2237259972993722e-71],[-7.249719661418846e-72],[-2.142345650922919e-71],[-1.1858239250360597e-73],[2.314272475392619e-71],[1.8229577238610506e-71],[-6.076212092852658e-72],[-2.2880546186111613e-71],[8.530912241465853e-72],[1.289311386611541e-71]]}},{"type":"logistic","size":3,"weights":{"W":[[-0.046025271644942106,0.43000087354413147,-1.2746118963903537,-0.2747905849461679,1.5640023036239745,-0.47393057710874525,0.04262682803990398,-1.6301004137530213,0.23579560917135628,0.6068158169755825],[0.28750560174648715,0.4654917164609066,-2.373358779190129,-0.7217155479427869,-2.2452936933449332,0.5310571705402711,0.7973870558062293,0.12204105737591034,0.268734176437449,-0.4699067495782419],[-0.31229927154463755,0.4957767976901443,1.4645313445853037,-0.6585040291765804,-0.6152370570419099,-0.9477506385135716,-1.2257915262557821,1.549261025480642,-2.23131246957434,0.4271854489323262]],"b":[[-7.354531190944728e-72],[-1.0644362165798457e-72],[-1.4612040864648164e-71]]}}]}